<?xml version="1.0"?>
<opencv_storage>
<stage1>
  <maxWeakCount>12</maxWeakCount>
  <stageThreshold>-1.7768150568008423e+00</stageThreshold>
  <weakClassifiers>
    <_>
      <internalNodes>
        0 -1 463942 -9.6778180450201035e-03</internalNodes>
      <leafValues>
        5.0633555650711060e-01 -6.6038984060287476e-01</leafValues></_>
    <_>
      <internalNodes>
        0 -1 439427 1.8419275293126702e-03</internalNodes>
      <leafValues>
        -5.9563899040222168e-01 4.2803728580474854e-01</leafValues></_>
    <_>
      <internalNodes>
        0 -1 440311 -4.1539437370374799e-04</internalNodes>
      <leafValues>
        4.8194840550422668e-01 -3.9188763499259949e-01</leafValues></_>
    <_>
      <internalNodes>
        0 -1 246985 -8.5062542930245399e-03</internalNodes>
      <leafValues>
        5.7056105136871338e-01 -2.5960978865623474e-01</leafValues></_>
    <_>
      <internalNodes>
        0 -1 354235 -3.9634811691939831e-03</internalNodes>
      <leafValues>
        3.5457733273506165e-01 -3.8107657432556152e-01</leafValues></_>
    <_>
      <internalNodes>
        0 -1 631285 -2.7851867489516735e-03</internalNodes>
      <leafValues>
        5.2677941322326660e-01 -2.3018386960029602e-01</leafValues></_>
    <_>
      <internalNodes>
        0 -1 412727 2.5072139687836170e-03</internalNodes>
      <leafValues>
        2.1001853048801422e-01 -6.0288512706756592e-01</leafValues></_>
    <_>
      <internalNodes>
        0 -1 347767 -4.8133395612239838e-03</internalNodes>
      <leafValues>
        4.4549411535263062e-01 -2.6457995176315308e-01</leafValues></_>
    <_>
      <internalNodes>
        0 -1 209251 -1.1007892340421677e-01</internalNodes>
      <leafValues>
        -8.3869850635528564e-01 1.6894133388996124e-01</leafValues></_>
    <_>
      <internalNodes>
        0 -1 408118 -2.3131424095481634e-03</internalNodes>
      <leafValues>
        5.3641068935394287e-01 -2.0471747219562531e-01</leafValues></_>
    <_>
      <internalNodes>
        0 -1 406767 -1.0407413356006145e-03</internalNodes>
      <leafValues>
        4.4557005167007446e-01 -2.3414495587348938e-01</leafValues></_>
    <_>
      <internalNodes>
        0 -1 528787 9.7601406741887331e-04</internalNodes>
      <leafValues>
        -2.8755331039428711e-01 3.5638010501861572e-01</leafValues></_></weakClassifiers></stage1>
</opencv_storage>
