<?xml version="1.0"?>
<opencv_storage>
<stage19>
  <maxWeakCount>79</maxWeakCount>
  <stageThreshold>-1.2471238374710083e+00</stageThreshold>
  <weakClassifiers>
    <_>
      <internalNodes>
        0 -1 413711 9.0338056907057762e-03</internalNodes>
      <leafValues>
        -3.7504655122756958e-01 3.0237580649554729e-03</leafValues></_>
    <_>
      <internalNodes>
        0 -1 355121 -2.5147996842861176e-02</internalNodes>
      <leafValues>
        3.1301385164260864e-01 -9.9317386746406555e-02</leafValues></_>
    <_>
      <internalNodes>
        0 -1 335732 3.4754406660795212e-03</internalNodes>
      <leafValues>
        -5.2405271679162979e-02 4.9327069520950317e-01</leafValues></_>
    <_>
      <internalNodes>
        0 -1 486719 5.4689974058419466e-04</internalNodes>
      <leafValues>
        7.5159557163715363e-02 -3.7374871969223022e-01</leafValues></_>
    <_>
      <internalNodes>
        0 -1 486084 1.6902663628570735e-04</internalNodes>
      <leafValues>
        -1.9109998643398285e-01 1.5722833573818207e-01</leafValues></_>
    <_>
      <internalNodes>
        0 -1 441829 -3.4177949419245124e-04</internalNodes>
      <leafValues>
        -3.7499961256980896e-01 8.0644674599170685e-02</leafValues></_>
    <_>
      <internalNodes>
        0 -1 354242 1.8099285662174225e-02</internalNodes>
      <leafValues>
        5.7482797652482986e-02 -3.3495017886161804e-01</leafValues></_>
    <_>
      <internalNodes>
        0 -1 527312 -7.3205484077334404e-03</internalNodes>
      <leafValues>
        2.4195402860641479e-01 -1.0211252421140671e-01</leafValues></_>
    <_>
      <internalNodes>
        0 -1 545376 4.5018172822892666e-03</internalNodes>
      <leafValues>
        -3.9438426494598389e-02 5.7480686902999878e-01</leafValues></_>
    <_>
      <internalNodes>
        0 -1 610161 3.1157160177826881e-02</internalNodes>
      <leafValues>
        -5.9113685041666031e-02 3.7338131666183472e-01</leafValues></_>
    <_>
      <internalNodes>
        0 -1 307155 -1.6482638893648982e-03</internalNodes>
      <leafValues>
        3.8871559500694275e-01 -4.6360641717910767e-02</leafValues></_>
    <_>
      <internalNodes>
        0 -1 511772 -3.3065170282498002e-04</internalNodes>
      <leafValues>
        -3.1600165367126465e-01 6.5715007483959198e-02</leafValues></_>
    <_>
      <internalNodes>
        0 -1 511772 1.8143770284950733e-04</internalNodes>
      <leafValues>
        8.8143095374107361e-02 -2.5117665529251099e-01</leafValues></_>
    <_>
      <internalNodes>
        0 -1 528065 8.2985509652644396e-04</internalNodes>
      <leafValues>
        -8.7685264647006989e-02 2.1632124483585358e-01</leafValues></_>
    <_>
      <internalNodes>
        0 -1 391125 -9.8287127912044525e-04</internalNodes>
      <leafValues>
        9.0032748878002167e-02 -2.1759085357189178e-01</leafValues></_>
    <_>
      <internalNodes>
        0 -1 504621 -2.4542026221752167e-02</internalNodes>
      <leafValues>
        -6.1626702547073364e-01 4.0931314229965210e-02</leafValues></_>
    <_>
      <internalNodes>
        0 -1 2600 -3.2470859587192535e-02</internalNodes>
      <leafValues>
        4.0587320923805237e-01 -5.8881647884845734e-02</leafValues></_>
    <_>
      <internalNodes>
        0 -1 427390 3.0350299552083015e-02</internalNodes>
      <leafValues>
        -8.5901997983455658e-02 2.2328752279281616e-01</leafValues></_>
    <_>
      <internalNodes>
        0 -1 309091 1.3280762359499931e-03</internalNodes>
      <leafValues>
        -6.1315421015024185e-02 3.2311323285102844e-01</leafValues></_>
    <_>
      <internalNodes>
        0 -1 129943 4.4052515178918839e-02</internalNodes>
      <leafValues>
        -9.0776801109313965e-02 2.1632361412048340e-01</leafValues></_>
    <_>
      <internalNodes>
        0 -1 368537 6.0017295181751251e-03</internalNodes>
      <leafValues>
        -1.1028835922479630e-01 1.9333375990390778e-01</leafValues></_>
    <_>
      <internalNodes>
        0 -1 341715 -2.9442557133734226e-03</internalNodes>
      <leafValues>
        1.5240357816219330e-01 -1.3380990922451019e-01</leafValues></_>
    <_>
      <internalNodes>
        0 -1 154803 -1.5025019820313901e-05</internalNodes>
      <leafValues>
        1.3289576768875122e-01 -1.3749167323112488e-01</leafValues></_>
    <_>
      <internalNodes>
        0 -1 23548 -1.0858768364414573e-03</internalNodes>
      <leafValues>
        1.7161767184734344e-01 -1.1561772227287292e-01</leafValues></_>
    <_>
      <internalNodes>
        0 -1 21897 -1.4365453971549869e-03</internalNodes>
      <leafValues>
        2.1465632319450378e-01 -8.7624981999397278e-02</leafValues></_>
    <_>
      <internalNodes>
        0 -1 413414 9.1932935174554586e-04</internalNodes>
      <leafValues>
        4.4539928436279297e-02 -4.5726069808006287e-01</leafValues></_>
    <_>
      <internalNodes>
        0 -1 355028 -8.1967492587864399e-04</internalNodes>
      <leafValues>
        1.6122123599052429e-01 -1.1444228142499924e-01</leafValues></_>
    <_>
      <internalNodes>
        0 -1 354724 8.2452083006501198e-04</internalNodes>
      <leafValues>
        -1.0514578223228455e-01 1.9296105206012726e-01</leafValues></_>
    <_>
      <internalNodes>
        0 -1 327902 -2.4259634315967560e-02</internalNodes>
      <leafValues>
        -4.8123717308044434e-01 3.7743411958217621e-02</leafValues></_>
    <_>
      <internalNodes>
        0 -1 420766 -3.1567731639370322e-04</internalNodes>
      <leafValues>
        -2.7813214063644409e-01 6.7600853741168976e-02</leafValues></_>
    <_>
      <internalNodes>
        0 -1 300324 4.7500319778919220e-02</internalNodes>
      <leafValues>
        -4.6241179108619690e-02 4.5579317212104797e-01</leafValues></_>
    <_>
      <internalNodes>
        0 -1 0 -6.7898043198511004e-05</internalNodes>
      <leafValues>
        -2.1533726155757904e-01 8.9208431541919708e-02</leafValues></_>
    <_>
      <internalNodes>
        0 -1 2 1.2990056711714715e-04</internalNodes>
      <leafValues>
        9.8047986626625061e-02 -2.4250569939613342e-01</leafValues></_>
    <_>
      <internalNodes>
        0 -1 2939 8.6467742919921875e-02</internalNodes>
      <leafValues>
        -5.8698814362287521e-02 3.7224960327148438e-01</leafValues></_>
    <_>
      <internalNodes>
        0 -1 215966 -2.4932241439819336e-01</internalNodes>
      <leafValues>
        -7.5288695096969604e-01 2.8051760047674179e-02</leafValues></_>
    <_>
      <internalNodes>
        0 -1 391205 -2.1466141333803535e-05</internalNodes>
      <leafValues>
        1.0197260230779648e-01 -1.9086858630180359e-01</leafValues></_>
    <_>
      <internalNodes>
        0 -1 462796 -4.4573633931577206e-04</internalNodes>
      <leafValues>
        3.1928873062133789e-01 -6.7596279084682465e-02</leafValues></_>
    <_>
      <internalNodes>
        0 -1 463647 -2.2191542666405439e-04</internalNodes>
      <leafValues>
        1.6526575386524200e-01 -1.7836456000804901e-01</leafValues></_>
    <_>
      <internalNodes>
        0 -1 528651 -7.0715993642807007e-03</internalNodes>
      <leafValues>
        2.6238641142845154e-01 -8.5733771324157715e-02</leafValues></_>
    <_>
      <internalNodes>
        0 -1 548942 5.7218433357775211e-04</internalNodes>
      <leafValues>
        8.6693175137042999e-02 -2.5409498810768127e-01</leafValues></_>
    <_>
      <internalNodes>
        0 -1 559744 1.0010635480284691e-02</internalNodes>
      <leafValues>
        4.3654542416334152e-02 -4.4688352942466736e-01</leafValues></_>
    <_>
      <internalNodes>
        0 -1 460881 -2.2833744878880680e-04</internalNodes>
      <leafValues>
        -2.4895960092544556e-01 7.6571315526962280e-02</leafValues></_>
    <_>
      <internalNodes>
        0 -1 340327 1.7740778625011444e-02</internalNodes>
      <leafValues>
        -5.9580061584711075e-02 3.3286625146865845e-01</leafValues></_>
    <_>
      <internalNodes>
        0 -1 437377 -8.5471465354203247e-06</internalNodes>
      <leafValues>
        1.1023875325918198e-01 -1.8963631987571716e-01</leafValues></_>
    <_>
      <internalNodes>
        0 -1 439407 4.5623593032360077e-03</internalNodes>
      <leafValues>
        6.4112000167369843e-02 -3.2100176811218262e-01</leafValues></_>
    <_>
      <internalNodes>
        0 -1 520907 -5.7979364646598697e-04</internalNodes>
      <leafValues>
        2.0423017442226410e-01 -9.3055278062820435e-02</leafValues></_>
    <_>
      <internalNodes>
        0 -1 520907 1.6134098405018449e-03</internalNodes>
      <leafValues>
        -6.7437998950481415e-02 3.3988311886787415e-01</leafValues></_>
    <_>
      <internalNodes>
        0 -1 603548 -1.8677029758691788e-02</internalNodes>
      <leafValues>
        2.8481963276863098e-01 -7.4979618191719055e-02</leafValues></_>
    <_>
      <internalNodes>
        0 -1 592085 1.0833794251084328e-02</internalNodes>
      <leafValues>
        3.9984341710805893e-02 -4.7641980648040771e-01</leafValues></_>
    <_>
      <internalNodes>
        0 -1 55972 -1.6023725271224976e-02</internalNodes>
      <leafValues>
        -5.8837729692459106e-01 2.8647469356656075e-02</leafValues></_>
    <_>
      <internalNodes>
        0 -1 527311 -1.5303791733458638e-03</internalNodes>
      <leafValues>
        3.4297013282775879e-01 -6.4060598611831665e-02</leafValues></_>
    <_>
      <internalNodes>
        0 -1 545303 -6.1081553576514125e-04</internalNodes>
      <leafValues>
        1.3138282299041748e-01 -1.3889582455158234e-01</leafValues></_>
    <_>
      <internalNodes>
        0 -1 637297 -6.3362898072227836e-04</internalNodes>
      <leafValues>
        1.6362167894840240e-01 -1.0996282100677490e-01</leafValues></_>
    <_>
      <internalNodes>
        0 -1 416221 -2.3425935069099069e-04</internalNodes>
      <leafValues>
        -2.4133662879467010e-01 8.0888614058494568e-02</leafValues></_>
    <_>
      <internalNodes>
        0 -1 632036 -2.4172284174710512e-03</internalNodes>
      <leafValues>
        2.4695485830307007e-01 -7.6439402997493744e-02</leafValues></_>
    <_>
      <internalNodes>
        0 -1 630124 1.7240352928638458e-02</internalNodes>
      <leafValues>
        4.3469846248626709e-02 -4.3705233931541443e-01</leafValues></_>
    <_>
      <internalNodes>
        0 -1 613226 -1.5018789563328028e-03</internalNodes>
      <leafValues>
        2.0945961773395538e-01 -1.0206403583288193e-01</leafValues></_>
    <_>
      <internalNodes>
        0 -1 529176 -1.1889787390828133e-02</internalNodes>
      <leafValues>
        -7.2087758779525757e-01 2.7454847469925880e-02</leafValues></_>
    <_>
      <internalNodes>
        0 -1 523021 5.6975660845637321e-04</internalNodes>
      <leafValues>
        -1.2902344763278961e-01 1.5386100113391876e-01</leafValues></_>
    <_>
      <internalNodes>
        0 -1 469845 -7.8273639082908630e-03</internalNodes>
      <leafValues>
        2.1668428182601929e-01 -8.7248645722866058e-02</leafValues></_>
    <_>
      <internalNodes>
        0 -1 413831 1.3064275262877345e-03</internalNodes>
      <leafValues>
        -1.2760461866855621e-01 1.5519684553146362e-01</leafValues></_>
    <_>
      <internalNodes>
        0 -1 482161 2.2901706397533417e-02</internalNodes>
      <leafValues>
        -8.2981891930103302e-02 2.6376825571060181e-01</leafValues></_>
    <_>
      <internalNodes>
        0 -1 486717 -1.0198438540101051e-03</internalNodes>
      <leafValues>
        -2.3398418724536896e-01 9.3885339796543121e-02</leafValues></_>
    <_>
      <internalNodes>
        0 -1 372245 -3.3063761889934540e-02</internalNodes>
      <leafValues>
        1.6358444094657898e-01 -1.2297561019659042e-01</leafValues></_>
    <_>
      <internalNodes>
        0 -1 573734 -4.0792878717184067e-02</internalNodes>
      <leafValues>
        -5.7995802164077759e-01 3.8203980773687363e-02</leafValues></_>
    <_>
      <internalNodes>
        0 -1 630156 2.7195876464247704e-03</internalNodes>
      <leafValues>
        -4.5168034732341766e-02 4.9251800775527954e-01</leafValues></_>
    <_>
      <internalNodes>
        0 -1 45624 -1.7697792500257492e-02</internalNodes>
      <leafValues>
        -5.2164644002914429e-01 4.3905939906835556e-02</leafValues></_>
    <_>
      <internalNodes>
        0 -1 138985 -3.9568962529301643e-03</internalNodes>
      <leafValues>
        1.6944339871406555e-01 -1.1747068166732788e-01</leafValues></_>
    <_>
      <internalNodes>
        0 -1 197354 3.5039352951571345e-04</internalNodes>
      <leafValues>
        -1.1604218184947968e-01 1.7936363816261292e-01</leafValues></_>
    <_>
      <internalNodes>
        0 -1 37121 1.5451483428478241e-02</internalNodes>
      <leafValues>
        -8.4958225488662720e-02 2.2676090896129608e-01</leafValues></_>
    <_>
      <internalNodes>
        0 -1 508411 1.9999644719064236e-03</internalNodes>
      <leafValues>
        -7.1279950439929962e-02 2.7538540959358215e-01</leafValues></_>
    <_>
      <internalNodes>
        0 -1 305009 -4.2786449193954468e-03</internalNodes>
      <leafValues>
        1.8834546208381653e-01 -1.1278130114078522e-01</leafValues></_>
    <_>
      <internalNodes>
        0 -1 107082 -1.5529647469520569e-01</internalNodes>
      <leafValues>
        -5.5811840295791626e-01 3.3630877733230591e-02</leafValues></_>
    <_>
      <internalNodes>
        0 -1 508340 1.9216741202399135e-04</internalNodes>
      <leafValues>
        -1.1687822639942169e-01 1.6065663099288940e-01</leafValues></_>
    <_>
      <internalNodes>
        0 -1 279914 7.0662307552993298e-04</internalNodes>
      <leafValues>
        -7.6558664441108704e-02 2.6718512177467346e-01</leafValues></_>
    <_>
      <internalNodes>
        0 -1 623061 1.8946893513202667e-02</internalNodes>
      <leafValues>
        5.5050291121006012e-02 -3.5603564977645874e-01</leafValues></_>
    <_>
      <internalNodes>
        0 -1 314323 -4.5288150431588292e-04</internalNodes>
      <leafValues>
        -2.4948289990425110e-01 7.0933490991592407e-02</leafValues></_>
    <_>
      <internalNodes>
        0 -1 270169 -1.0410279501229525e-03</internalNodes>
      <leafValues>
        -2.3171223700046539e-01 7.9182140529155731e-02</leafValues></_>
    <_>
      <internalNodes>
        0 -1 27573 -2.1407480817288160e-03</internalNodes>
      <leafValues>
        4.2685586214065552e-01 -4.4203381985425949e-02</leafValues></_></weakClassifiers></stage19>
</opencv_storage>
