<?xml version="1.0"?>
<opencv_storage>
<stage4>
  <maxWeakCount>27</maxWeakCount>
  <stageThreshold>-1.6594979763031006e+00</stageThreshold>
  <weakClassifiers>
    <_>
      <internalNodes>
        0 -1 216885 -1.1107161641120911e-02</internalNodes>
      <leafValues>
        2.7006688714027405e-01 -6.3113498687744141e-01</leafValues></_>
    <_>
      <internalNodes>
        0 -1 463822 -3.0443225987255573e-03</internalNodes>
      <leafValues>
        2.4774195253849030e-01 -4.8634645342826843e-01</leafValues></_>
    <_>
      <internalNodes>
        0 -1 440309 -7.8161485726013780e-04</internalNodes>
      <leafValues>
        3.4763619303703308e-01 -2.9626104235649109e-01</leafValues></_>
    <_>
      <internalNodes>
        0 -1 504616 4.4793559936806560e-04</internalNodes>
      <leafValues>
        -3.0471009016036987e-01 2.4266542494297028e-01</leafValues></_>
    <_>
      <internalNodes>
        0 -1 442033 -6.7682680673897266e-04</internalNodes>
      <leafValues>
        -5.1281046867370605e-01 1.8057732284069061e-01</leafValues></_>
    <_>
      <internalNodes>
        0 -1 442033 6.3413142925128341e-04</internalNodes>
      <leafValues>
        1.4702141284942627e-01 -6.9335526227951050e-01</leafValues></_>
    <_>
      <internalNodes>
        0 -1 639732 3.7606302648782730e-03</internalNodes>
      <leafValues>
        -2.0179738104343414e-01 4.8026898503303528e-01</leafValues></_>
    <_>
      <internalNodes>
        0 -1 505326 -7.4845235794782639e-03</internalNodes>
      <leafValues>
        6.1255282163619995e-01 -1.0026307404041290e-01</leafValues></_>
    <_>
      <internalNodes>
        0 -1 306098 -6.5709399059414864e-03</internalNodes>
      <leafValues>
        4.6136382222175598e-01 -1.7306484282016754e-01</leafValues></_>
    <_>
      <internalNodes>
        0 -1 637224 7.6004522852599621e-03</internalNodes>
      <leafValues>
        -1.2189171463251114e-01 4.2904725670814514e-01</leafValues></_>
    <_>
      <internalNodes>
        0 -1 526705 -5.4074142826721072e-04</internalNodes>
      <leafValues>
        2.7998244762420654e-01 -2.1795481443405151e-01</leafValues></_>
    <_>
      <internalNodes>
        0 -1 545376 -1.7134428489953279e-03</internalNodes>
      <leafValues>
        5.5475836992263794e-01 -1.2404249608516693e-01</leafValues></_>
    <_>
      <internalNodes>
        0 -1 442631 -4.9295858480036259e-04</internalNodes>
      <leafValues>
        -4.8896303772926331e-01 1.4881889522075653e-01</leafValues></_>
    <_>
      <internalNodes>
        0 -1 442631 -6.8007830122951418e-06</internalNodes>
      <leafValues>
        2.6204434037208557e-01 -2.8622457385063171e-01</leafValues></_>
    <_>
      <internalNodes>
        0 -1 87572 -3.2348114997148514e-02</internalNodes>
      <leafValues>
        -8.0557745695114136e-01 8.0103628337383270e-02</leafValues></_>
    <_>
      <internalNodes>
        0 -1 360845 -2.0495061762630939e-03</internalNodes>
      <leafValues>
        5.9579312801361084e-01 -1.1631825566291809e-01</leafValues></_>
    <_>
      <internalNodes>
        0 -1 441815 2.7237934409640729e-04</internalNodes>
      <leafValues>
        1.1739700287580490e-01 -5.3574615716934204e-01</leafValues></_>
    <_>
      <internalNodes>
        0 -1 59588 -4.1079623624682426e-03</internalNodes>
      <leafValues>
        3.8584852218627930e-01 -1.5899163484573364e-01</leafValues></_>
    <_>
      <internalNodes>
        0 -1 464458 3.9391755126416683e-04</internalNodes>
      <leafValues>
        1.6855682432651520e-01 -3.6477652192115784e-01</leafValues></_>
    <_>
      <internalNodes>
        0 -1 361917 -1.9906617235392332e-03</internalNodes>
      <leafValues>
        5.3085678815841675e-01 -1.2413669377565384e-01</leafValues></_>
    <_>
      <internalNodes>
        0 -1 416557 -8.3080094555043615e-06</internalNodes>
      <leafValues>
        2.2665689885616302e-01 -2.8342795372009277e-01</leafValues></_>
    <_>
      <internalNodes>
        0 -1 462486 -1.7418161034584045e-02</internalNodes>
      <leafValues>
        -6.6191476583480835e-01 8.6415037512779236e-02</leafValues></_>
    <_>
      <internalNodes>
        0 -1 244740 1.7120810225605965e-03</internalNodes>
      <leafValues>
        -2.1434316039085388e-01 2.9760041832923889e-01</leafValues></_>
    <_>
      <internalNodes>
        0 -1 608230 3.9288360625505447e-02</internalNodes>
      <leafValues>
        -8.9716330170631409e-02 5.8037787675857544e-01</leafValues></_>
    <_>
      <internalNodes>
        0 -1 12527 -2.3590320721268654e-02</internalNodes>
      <leafValues>
        4.9946472048759460e-01 -1.0336871445178986e-01</leafValues></_>
    <_>
      <internalNodes>
        0 -1 17527 -7.9452767968177795e-03</internalNodes>
      <leafValues>
        4.9801835417747498e-01 -1.2982212007045746e-01</leafValues></_>
    <_>
      <internalNodes>
        0 -1 276282 -1.1652902467176318e-03</internalNodes>
      <leafValues>
        2.8918993473052979e-01 -1.8809834122657776e-01</leafValues></_></weakClassifiers></stage4>
</opencv_storage>
