<?xml version="1.0"?>
<opencv_storage>
<stage6>
  <maxWeakCount>38</maxWeakCount>
  <stageThreshold>-1.6463806629180908e+00</stageThreshold>
  <weakClassifiers>
    <_>
      <internalNodes>
        0 -1 214388 -2.3772899061441422e-02</internalNodes>
      <leafValues>
        1.8784530460834503e-01 -4.9787837266921997e-01</leafValues></_>
    <_>
      <internalNodes>
        0 -1 544925 3.4428932704031467e-03</internalNodes>
      <leafValues>
        -3.1339788436889648e-01 2.3982796072959900e-01</leafValues></_>
    <_>
      <internalNodes>
        0 -1 363556 -2.8938145842403173e-03</internalNodes>
      <leafValues>
        2.2482225298881531e-01 -3.1280109286308289e-01</leafValues></_>
    <_>
      <internalNodes>
        0 -1 441162 -4.7037034528329968e-04</internalNodes>
      <leafValues>
        -4.6851146221160889e-01 2.0147524774074554e-01</leafValues></_>
    <_>
      <internalNodes>
        0 -1 439409 3.3035204978659749e-04</internalNodes>
      <leafValues>
        -2.7075448632240295e-01 2.5896859169006348e-01</leafValues></_>
    <_>
      <internalNodes>
        0 -1 465182 5.6285818573087454e-04</internalNodes>
      <leafValues>
        1.2478542327880859e-01 -5.0570482015609741e-01</leafValues></_>
    <_>
      <internalNodes>
        0 -1 239088 4.2794048786163330e-03</internalNodes>
      <leafValues>
        -2.3799368739128113e-01 2.5284051895141602e-01</leafValues></_>
    <_>
      <internalNodes>
        0 -1 32094 2.8807584196329117e-02</internalNodes>
      <leafValues>
        -1.3791559636592865e-01 3.5819220542907715e-01</leafValues></_>
    <_>
      <internalNodes>
        0 -1 526705 -2.2363504394888878e-03</internalNodes>
      <leafValues>
        4.0649536252021790e-01 -1.4502751827239990e-01</leafValues></_>
    <_>
      <internalNodes>
        0 -1 411620 -5.6179160310421139e-05</internalNodes>
      <leafValues>
        1.5368685126304626e-01 -3.7585833668708801e-01</leafValues></_>
    <_>
      <internalNodes>
        0 -1 288999 -8.0300197005271912e-02</internalNodes>
      <leafValues>
        -6.2343704700469971e-01 1.0262086242437363e-01</leafValues></_>
    <_>
      <internalNodes>
        0 -1 545376 -1.4379204949364066e-03</internalNodes>
      <leafValues>
        4.0567162632942200e-01 -1.5845862030982971e-01</leafValues></_>
    <_>
      <internalNodes>
        0 -1 438413 -6.0123647563159466e-04</internalNodes>
      <leafValues>
        -4.6939101815223694e-01 1.2872098386287689e-01</leafValues></_>
    <_>
      <internalNodes>
        0 -1 217226 -1.4896703651174903e-03</internalNodes>
      <leafValues>
        2.3935015499591827e-01 -2.0917366445064545e-01</leafValues></_>
    <_>
      <internalNodes>
        0 -1 631253 -3.5981619730591774e-03</internalNodes>
      <leafValues>
        3.6179679632186890e-01 -1.3530170917510986e-01</leafValues></_>
    <_>
      <internalNodes>
        0 -1 217782 -5.8995769359171391e-04</internalNodes>
      <leafValues>
        -4.3045938014984131e-01 1.1649375408887863e-01</leafValues></_>
    <_>
      <internalNodes>
        0 -1 417242 -9.1724359663203359e-06</internalNodes>
      <leafValues>
        1.7172534763813019e-01 -2.6901730895042419e-01</leafValues></_>
    <_>
      <internalNodes>
        0 -1 304941 -7.3652407154440880e-03</internalNodes>
      <leafValues>
        4.4599476456642151e-01 -1.1532656848430634e-01</leafValues></_>
    <_>
      <internalNodes>
        0 -1 508307 1.1013436596840620e-03</internalNodes>
      <leafValues>
        1.0862661898136139e-01 -4.6567153930664062e-01</leafValues></_>
    <_>
      <internalNodes>
        0 -1 572248 -2.8269814793020487e-03</internalNodes>
      <leafValues>
        2.6811689138412476e-01 -1.8451181054115295e-01</leafValues></_>
    <_>
      <internalNodes>
        0 -1 528011 9.2059129383414984e-04</internalNodes>
      <leafValues>
        -1.0389269888401031e-01 4.2411118745803833e-01</leafValues></_>
    <_>
      <internalNodes>
        0 -1 437232 -5.0623710267245770e-03</internalNodes>
      <leafValues>
        -5.8010822534561157e-01 8.8656701147556305e-02</leafValues></_>
    <_>
      <internalNodes>
        0 -1 333572 1.5197368338704109e-03</internalNodes>
      <leafValues>
        -1.1497963964939117e-01 4.6456193923950195e-01</leafValues></_>
    <_>
      <internalNodes>
        0 -1 578694 3.0796966166235507e-04</internalNodes>
      <leafValues>
        1.2725506722927094e-01 -3.7586054205894470e-01</leafValues></_>
    <_>
      <internalNodes>
        0 -1 335753 2.5230306200683117e-03</internalNodes>
      <leafValues>
        -1.2403302639722824e-01 3.5504648089408875e-01</leafValues></_>
    <_>
      <internalNodes>
        0 -1 270961 -2.1756315603852272e-02</internalNodes>
      <leafValues>
        -6.1056256294250488e-01 7.1662761270999908e-02</leafValues></_>
    <_>
      <internalNodes>
        0 -1 638772 -1.2803787831217051e-04</internalNodes>
      <leafValues>
        -3.8000988960266113e-01 1.1571074277162552e-01</leafValues></_>
    <_>
      <internalNodes>
        0 -1 638772 1.3303753803484142e-04</internalNodes>
      <leafValues>
        1.2551075220108032e-01 -3.8828101754188538e-01</leafValues></_>
    <_>
      <internalNodes>
        0 -1 382126 8.3940908312797546e-02</internalNodes>
      <leafValues>
        6.3505671918392181e-02 -7.4459588527679443e-01</leafValues></_>
    <_>
      <internalNodes>
        0 -1 407480 -7.4143800884485245e-04</internalNodes>
      <leafValues>
        3.2309213280677795e-01 -1.5326991677284241e-01</leafValues></_>
    <_>
      <internalNodes>
        0 -1 406603 -1.2313970364630222e-03</internalNodes>
      <leafValues>
        3.0205869674682617e-01 -1.3599587976932526e-01</leafValues></_>
    <_>
      <internalNodes>
        0 -1 15761 -5.6077898479998112e-03</internalNodes>
      <leafValues>
        4.2292949557304382e-01 -9.6281312406063080e-02</leafValues></_>
    <_>
      <internalNodes>
        0 -1 293775 -2.6349474210292101e-03</internalNodes>
      <leafValues>
        2.0633509755134583e-01 -2.0135572552680969e-01</leafValues></_>
    <_>
      <internalNodes>
        0 -1 486841 2.3775694426149130e-03</internalNodes>
      <leafValues>
        6.9143965840339661e-02 -5.8582788705825806e-01</leafValues></_>
    <_>
      <internalNodes>
        0 -1 381618 -5.6912907166406512e-04</internalNodes>
      <leafValues>
        1.9046954810619354e-01 -2.0778802037239075e-01</leafValues></_>
    <_>
      <internalNodes>
        0 -1 510058 1.0436656884849072e-03</internalNodes>
      <leafValues>
        -1.8902468681335449e-01 2.1046997606754303e-01</leafValues></_>
    <_>
      <internalNodes>
        0 -1 636948 2.6532341726124287e-03</internalNodes>
      <leafValues>
        -6.2275696545839310e-02 6.9192105531692505e-01</leafValues></_>
    <_>
      <internalNodes>
        0 -1 528646 -2.5727585889399052e-03</internalNodes>
      <leafValues>
        5.5678474903106689e-01 -6.3226759433746338e-02</leafValues></_></weakClassifiers></stage6>
</opencv_storage>
